-0.16856295
0.36096394
0.23203564
0.34899628
0.13889027
0.15881622
-0.2090279
-0.11459017
0.22785467
-0.1769394
-0.08893466
-0.22633636
-0.30226672
0.076397
-0.16347304
0.36866444
0.19506282
-0.061510623
-0.36832762
0.34873432
0.053189278
-0.03542453
-0.18742716
0.06466305
-0.41417646
-0.27693313
-0.40899312
-0.41859287
0.2247237
0.23538691
0.37644368
-0.11336261
0.2656319
-0.23241891
-0.1719602
0.29010153
0.22251368
-0.28200477
-0.23344417
-0.20980714
0.017777652
0.13394642
-0.42343482
-0.21389954
0.34031707
-0.09201807
-0.08915079
-0.008205354
-0.27624255
0.41792405
-0.24398378
-0.33984518
0.41789222
0.31388223
0.035003662
0.18697578
-0.26833743
-0.01944673
0.25300068
-0.34962374
0.29284334
0.20591235
0.1423912
0.11622411
0.26592398
0.40968698
-0.24064651
0.23846614
-0.3757527
0.1972462
-0.023710132
0.067141265
-0.35852027
-0.16802862
-0.34041193
0.004010886
0.22482121
-0.22111195
-0.26804537
-0.4172002
-0.17531383
0.35038012
0.11678517
-0.14899322
0.15281183
-0.4114613
0.014959365
-0.23824821
0.049644917
0